digraph Tree {
node [shape=box] ;
0 [label="X[7] <= 16.7196\nmse = 5.933\nsamples = 1661\nvalue = 16.946"] ;
1 [label="X[1] <= 10.9456\nmse = 5.7525\nsamples = 767\nvalue = 15.3894"] ;
0 -> 1 [labeldistance=2.5, labelangle=45, headlabel="True"] ;
2 [label="X[7] <= 15.2129\nmse = 5.8207\nsamples = 576\nvalue = 14.8252"] ;
1 -> 2 ;
3 [label="X[6] <= 121.5\nmse = 5.8438\nsamples = 211\nvalue = 13.8424"] ;
2 -> 3 ;
4 [label="X[7] <= 10.2178\nmse = 5.9617\nsamples = 176\nvalue = 13.5337"] ;
3 -> 4 ;
5 [label="mse = 4.2329\nsamples = 6\nvalue = 9.7656"] ;
4 -> 5 ;
6 [label="mse = 5.5039\nsamples = 170\nvalue = 13.6667"] ;
4 -> 6 ;
7 [label="X[7] <= 13.3316\nmse = 2.3604\nsamples = 35\nvalue = 15.3952"] ;
3 -> 7 ;
8 [label="mse = 1.6329\nsamples = 8\nvalue = 14.1778"] ;
7 -> 8 ;
9 [label="mse = 2.0068\nsamples = 27\nvalue = 15.7559"] ;
7 -> 9 ;
10 [label="X[27] <= 0.5\nmse = 4.9263\nsamples = 365\nvalue = 15.3933"] ;
2 -> 10 ;
11 [label="X[7] <= 16.1377\nmse = 3.5878\nsamples = 226\nvalue = 15.928"] ;
10 -> 11 ;
12 [label="mse = 3.8446\nsamples = 132\nvalue = 15.5144"] ;
11 -> 12 ;
13 [label="mse = 2.6496\nsamples = 94\nvalue = 16.5089"] ;
11 -> 13 ;
14 [label="X[1] <= 9.0647\nmse = 5.8816\nsamples = 139\nvalue = 14.5238"] ;
10 -> 14 ;
15 [label="mse = 7.7126\nsamples = 27\nvalue = 11.9029"] ;
14 -> 15 ;
16 [label="mse = 3.3851\nsamples = 112\nvalue = 15.1556"] ;
14 -> 16 ;
17 [label="X[7] <= 14.7514\nmse = 1.6912\nsamples = 191\nvalue = 17.0911"] ;
1 -> 17 ;
18 [label="X[6] <= 118.5\nmse = 1.2447\nsamples = 20\nvalue = 15.6571"] ;
17 -> 18 ;
19 [label="X[4] <= 0.5\nmse = 0.8595\nsamples = 17\nvalue = 15.3812"] ;
18 -> 19 ;
20 [label="mse = 0.4784\nsamples = 4\nvalue = 14.3034"] ;
19 -> 20 ;
21 [label="mse = 0.5093\nsamples = 13\nvalue = 15.7128"] ;
19 -> 21 ;
22 [label="X[6] <= 147.0\nmse = 0.5508\nsamples = 3\nvalue = 17.221"] ;
18 -> 22 ;
23 [label="mse = 0.1307\nsamples = 2\nvalue = 17.7024"] ;
22 -> 23 ;
24 [label="mse = 0.0\nsamples = 1\nvalue = 16.258"] ;
22 -> 24 ;
25 [label="X[1] <= 11.2192\nmse = 1.4748\nsamples = 171\nvalue = 17.2588"] ;
17 -> 25 ;
26 [label="X[0] <= 6.15\nmse = 1.4218\nsamples = 50\nvalue = 16.5629"] ;
25 -> 26 ;
27 [label="mse = 0.4149\nsamples = 9\nvalue = 17.6252"] ;
26 -> 27 ;
28 [label="mse = 1.3408\nsamples = 41\nvalue = 16.3298"] ;
26 -> 28 ;
29 [label="X[1] <= 12.2542\nmse = 1.2139\nsamples = 121\nvalue = 17.5463"] ;
25 -> 29 ;
30 [label="mse = 1.1484\nsamples = 95\nvalue = 17.3592"] ;
29 -> 30 ;
31 [label="mse = 0.8582\nsamples = 26\nvalue = 18.23"] ;
29 -> 31 ;
32 [label="X[7] <= 18.0276\nmse = 2.2256\nsamples = 894\nvalue = 18.2815"] ;
0 -> 32 [labeldistance=2.5, labelangle=-45, headlabel="False"] ;
33 [label="X[1] <= 11.1547\nmse = 1.842\nsamples = 590\nvalue = 17.66"] ;
32 -> 33 ;
34 [label="X[1] <= 9.4718\nmse = 1.9929\nsamples = 302\nvalue = 17.0109"] ;
33 -> 34 ;
35 [label="X[8] <= 21.5299\nmse = 3.9418\nsamples = 52\nvalue = 16.0093"] ;
34 -> 35 ;
36 [label="mse = 2.5026\nsamples = 48\nvalue = 16.3251"] ;
35 -> 36 ;
37 [label="mse = 5.6637\nsamples = 4\nvalue = 12.2208"] ;
35 -> 37 ;
38 [label="X[27] <= 0.5\nmse = 1.3355\nsamples = 250\nvalue = 17.2193"] ;
34 -> 38 ;
39 [label="mse = 0.9015\nsamples = 160\nvalue = 17.5434"] ;
38 -> 39 ;
40 [label="mse = 1.5883\nsamples = 90\nvalue = 16.6431"] ;
38 -> 40 ;
41 [label="X[7] <= 17.3269\nmse = 0.7789\nsamples = 288\nvalue = 18.3405"] ;
33 -> 41 ;
42 [label="X[1] <= 11.7766\nmse = 0.7959\nsamples = 118\nvalue = 17.9149"] ;
41 -> 42 ;
43 [label="mse = 0.8047\nsamples = 63\nvalue = 17.5269"] ;
42 -> 43 ;
44 [label="mse = 0.4159\nsamples = 55\nvalue = 18.3593"] ;
42 -> 44 ;
45 [label="X[1] <= 12.3556\nmse = 0.554\nsamples = 170\nvalue = 18.636"] ;
41 -> 45 ;
46 [label="mse = 0.4647\nsamples = 132\nvalue = 18.5036"] ;
45 -> 46 ;
47 [label="mse = 0.5921\nsamples = 38\nvalue = 19.0959"] ;
45 -> 47 ;
48 [label="X[1] <= 12.4794\nmse = 0.7653\nsamples = 304\nvalue = 19.4877"] ;
32 -> 48 ;
49 [label="X[1] <= 11.6239\nmse = 0.5967\nsamples = 191\nvalue = 19.0901"] ;
48 -> 49 ;
50 [label="X[12] <= 0.5\nmse = 0.6684\nsamples = 89\nvalue = 18.6995"] ;
49 -> 50 ;
51 [label="mse = 0.5553\nsamples = 56\nvalue = 18.3686"] ;
50 -> 51 ;
52 [label="mse = 0.3593\nsamples = 33\nvalue = 19.261"] ;
50 -> 52 ;
53 [label="X[12] <= 0.5\nmse = 0.2847\nsamples = 102\nvalue = 19.431"] ;
49 -> 53 ;
54 [label="mse = 0.2111\nsamples = 80\nvalue = 19.2841"] ;
53 -> 54 ;
55 [label="mse = 0.1883\nsamples = 22\nvalue = 19.9652"] ;
53 -> 55 ;
56 [label="X[7] <= 19.0222\nmse = 0.3316\nsamples = 113\nvalue = 20.1598"] ;
48 -> 56 ;
57 [label="X[27] <= 0.5\nmse = 0.2612\nsamples = 77\nvalue = 19.9414"] ;
56 -> 57 ;
58 [label="mse = 0.228\nsamples = 60\nvalue = 20.0746"] ;
57 -> 58 ;
59 [label="mse = 0.0949\nsamples = 17\nvalue = 19.4714"] ;
57 -> 59 ;
60 [label="X[6] <= 127.0\nmse = 0.1617\nsamples = 36\nvalue = 20.6269"] ;
56 -> 60 ;
61 [label="mse = 0.0735\nsamples = 10\nvalue = 20.2037"] ;
60 -> 61 ;
62 [label="mse = 0.1003\nsamples = 26\nvalue = 20.7897"] ;
60 -> 62 ;
}